-0.574937421597626
-0.344373987423578
0.121275364773438
-0.407151203095311
-0.886243155512422
-0.510667803902923
1.0447633861389
-0.0139021018061103
-0.513821342019927
0.0518363641577589
-0.624891792357512
-1.15730155631335
-0.391952471048415
-0.48988916886744
0.115849411042099
0.105393131204667
-0.203495362826209
0.745048446206785
-0.00642582613720115
-0.274532649152786
-0.212280188916153
-0.143728021128546
-0.618947175407719
0.294133006385121
0.1328913027316
-0.488563053931909
1.14672124012013
-0.681237622536504
0.284963061627269
-0.495084811169734
-0.503259406146416
0.0439587796060912
-0.698300649022269
-0.875986684802426
-0.279128677004606
1.23968576121756
-0.344529792177485
-0.829389323001215
-0.569059856602452
-0.823676096759503
-0.0380757944957247
-0.0231970900328066
-0.146932839060342
-0.265767614750393
-0.0433927214207085
1.17678363994
-0.0990299329134656
-1.64339428748981
-0.104424478413978
-0.179146330001746
1.65595105846907
0.460921041864178
-0.408038732312889
0.374704718232879
0.338608270493615
0.157994128771124
-0.997997451377255
1.25866739960258
1.86583820642079
-0.631412580450957
-1.09774920558939
0.461565603061447
0.930300966350686
0.410430866259731
0.0537887251051917
-0.168436522434943
-0.191761896749402
-2.59920201318088
0.0214981756946516
1.09251918628307
-1.08656900630407
-1.05726982102265
0.372177107522836
-0.188485644148308
-0.284822437186658
-2.48755579022524
0.783117702189927
2.00940470512367
-0.721635452090354
-0.339833490548568
-0.0858023065155277
0.579120224699154
0.290783088025662
-0.41465214368888
-0.175052664886375
0.416298632390687
0.35912866681498
-1.17599200900804
-1.01480706503372
0.894521755626538
-0.797613906637806
-0.187649492140401
0.210185712268878
-0.168272752471418
-0.45210845242946
-2.60131406809592
0.3125853532318
-0.0319792438493721
0.00262003375944077
1.19408570337492
-0.835841110187522
0.190603505956294
0.102876092324446
0.106127254391828
-0.201841972127804
0.57520975920756
0.426744590629476
0.537264041852383
-1.83256057702646
-1.37119154550883
-1.05007993004358
-0.1174157395544
0.0265611453800661
-0.0663837357610576
0.926229004757989
-0.318286435088821
-1.08194099184678
0.347967940723102
0.562288152429149
-0.717178173175506
1.25832789242597
-0.305818446421998
0.136456167981373
1.34576886987899
0.709133768244214
2.88403874802505
-0.177564690459027
-2.08920248937428
-0.916669725054111
0.316144509754621
0.56227043815826
-0.0714343163655261
-0.09682444926045
1.05823432624553
1.03298539298037
1.21823944208084
0.252932944786586
-0.141599973299748
1.40552892834049
-0.0752375872317918
-0.500474456804651
1.22785460473223
0.156946361389565
0.360958890576047
0.344701528204181
1.26044141853087
0.413565836656982
-1.79681039607625
0.060490176049674
-0.362631244827235
-0.10754677509219
0.579692671994349
0.271800210173917
-0.512543021531005
0.344468988542883
0.302271969420152
0.127341919229702
-0.456511208758452
-1.01936668032915
-2.51476072937319
-1.0646007681296
-0.582170594360821
-0.0900745978278884
0.314234899149333
0.019210870498074
-0.187086567093281
-1.49375718470585
0.147346493653998
0.773128813764652
-0.732570708930398
0.520555597969312
0.749210565631227
0.0519523979628312
1.50803402144455
0.432313389055007
1.69837822368309
3.16455222906148
-0.222742129824794
-0.967961955039037
0.391787823811463
-0.166047047895672
0.0694952608306285
0.223983028996336
0.620269747991133
1.038210761863
-0.986836909101743
-0.322566307542864
-1.67227852389301
0.917276051361428
0.224632097131977
0.568412859571742
-0.010782262156719
0.47080247005854
0.603961127861199
0.132830347253294
0.165136086714482
-0.230160586617753
0.368179705153343
-0.00776358647083351
-0.0393241850111114
-0.121025439545613
0.456440318134159
0.0197415649155483
-0.0232058671302346
0.416517133594576
0.495165467617674
-2.77048664210944
-0.0543612072089428
1.93266585234672
-0.0780189592980751
0.207295506225356
0.317957593115516
0.720019006438134
-0.0419624351943779
0.592347980096369
0.72188466519196
0.247605041312016
0.28206944323216
0.893544917937174
-0.113138616073427
1.63052941202923
0.508767367313083
-0.166072668332378
-0.218793199987746
-0.172429076357079
-2.85211396910381
2.49310144471312
0.620711167690056
-0.0912340731915487
0.348985429510027
0.337120525887007
-0.314582637592476
0.437004016478315
0.783296376656413
-0.404997089082279
0.441685085312454
0.587501462839902
-1.32710571681653
0.90484660549361
0.837575103730377
1.63130608880898
0.932675369825956
0.245558575229906
0.346870152995967
0.0643459036359985
-1.33397129675069
0.315232838303122
-0.709842879553628
0.538268729991635
0.0282499508057544
1.12795035814105
-0.264806200613968
0.730196167975853
-0.113397495133726
-0.0809652728697146
0.459482240402341
-0.93673969460128
-0.229790826233356
-0.489786568626158
0.968646157348452
-0.677954160107295
-0.344252023707645
0.582935231430769
0.325440340525216
0.334255989087626
0.66201355189521
0.346874796311139
-0.294132142100696
0.037056420508616
0.376135032137056
1.6543449337161
0.488551869488445
-0.308627057431818
-1.13147258248604
0.0287112363489425
-2.30732246808183
2.08731869270771
0.742379770289613
-0.167007875543405
-0.085891851687435
-0.0509740892008642
0.358076799523552
-0.0924319207760058
0.609772917222609
-0.173694291589533
0.920350622227361
-0.299189544033583
-1.67216198765241
-0.742401527262451
-0.234899625852137
1.39740552388283
1.11528826546826
0.0491693405551368
0.650584190713137
0.700467665619027
0.697958830851994
0.032144796421254
-0.605763916279948
-0.102528411243284
0.151911936350175
-0.797875000131115
0.348949780967311
0.42729725938401
0.162126849748014
-0.261029034927376
-0.0520895202899262
-0.307069424417207
0.0389380531197932
0.980798811070554
0.647143859315839
-0.666790319866427
0.702022752893563
0.607753548341711
0.123877793877748
0.215402498624349
0.231783144760955
-0.99543169557948
0.0850357476145768
0.826874127114863
0.394295090715054
1.40019856686981
-0.209236067953101
0.298850232783655
-1.0261266113878
0.498836202025322
-2.30729701922062
1.16926875681612
-1.80534537931503
-0.564990400306956
0.294535708800367
0.434789227019016
0.190249783247873
0.0970070965796348
1.20155369261485
-0.68153943307976
0.732086313275307
0.294232428626818
-0.0995003233871166
-0.541623831987921
-0.076305279769381
0.584347367013489
-0.512179216413365
0.282331082767032
0.429990698103773
0.49304665416257
0.742971047707714
0.477088893406338
-0.51033529004181
-0.339793646746738
0.142727844475918
0.303954016884672
-0.0765988134231043
0.858416383064955
0.387715328712934
0.136973847257229
0.669889049775909
-0.542227786653932
0.651425250178911
0.45742649490637
-1.30755341442947
-0.826767113220558
0.55319983327318
-0.677034267979009
-0.0310857116869015
0.781959501312703
-0.377795973011474
-1.74139663109056
-1.04079010360031
1.03516000860761
-1.53650581231417
0.0275553540878482
0.426891840152846
-0.125171455940289
2.7240926681011
0.0745589450657855
1.05482497693241
-0.122168882016977
0.464838101910049
-0.420679795244218
0.151507101195067
0.115041613114089
0.530690273501262
0.0547970443130225
0.515371358422223
1.45820255709651
-0.447031471828214
0.310677837290111
0.426998058579808
0.0318854144238957
-0.223819468656245
0.250031794628295
1.43820060292259
0.549427500787717
0.598682795129528
0.342517314708331
0.645070895895198
-0.285801248039124
-0.205841499062394
-0.0181127119331012
0.910184338796486
0.571559154219661
0.370280624929386
0.0496488846705383
0.389675209186221
0.970311612948568
-0.753831805585529
2.40182886870783
-0.425520720698573
0.8382683460389
-1.95469590116299
0.385972677161823
0.371500409274745
0.521538821727329
0.422587837439978
0.455988955486565
-0.112506037981546
1.11648171149786
0.173183236253791
-0.39173341408953
-1.67876700955678
-0.39321167769917
1.46372632903443
-0.352240162689725
2.8598521893416
0.0955509156270462
1.27357907951618
1.78377800371786
0.562372776008365
0.917810028209182
-0.226067703813733
0.282150594078575
-0.0127504448778255
0.0233574270975946
-1.02997985622318
0.845309372410416
0.816853837281227
-0.0802058526365059
-0.726697494049768
0.667864016933377
1.13674315304814
1.92180772553261
-0.85866194866463
-0.173919551541007
-0.59445471595501
0.587730314580454
-1.20026506964956
-0.354634991482708
-0.482504684140473
0.660076862749998
-0.147339317701471
0.133918835412199
0.187643002486108
0.520666070457159
0.0057467485681792
0.781316509046361
-0.134258167425626
0.0503532155518692
0.961782540145753
1.1949425499312
1.69650898066701
-0.390426932822134
0.520111476526276
0.543724428272979
0.306240936743047
0.113741858216166
0.650058884260169
-0.133362046011024
-1.64123966973951
0.383398506593756
0.155651598116951
1.57688648257423
-0.815656606974221
0.742302736532679
-1.16328308171749
-0.146707735539947
-1.76314127237713
0.393863241495699
1.70865290286231
0.543687659227222
0.245667492314598
0.579420783426633
0.355320646228832
0.225653149678583
1.07682174878604
-0.100213199544523
0.205756320259261
0.281802901678531
-1.15615204294768
0.481990518510042
0.493871977473254
-1.24058985853287
0.0131349065167577
-0.381368670106388
0.653640593592629
0.0834863757896174
-0.584882411979369
0.6358917516513
0.132476202745344
0.38872857348312
1.01444801710334
1.26234546461391
0.29659704640186
-0.0279674193650424
0.58316734101803
-0.277877463972434
-0.190737322414935
-0.591722800940025
0.966193204636183
-1.09320236421907
-0.94046976312408
-1.43458673925745
-0.317561235201712
-0.320510919842713
0.01729062030599
-0.348727305471555
0.264838276758167
-0.827632319044235
2.17557804179853
1.65883275849649
0.0569730594563931
0.168893762255896
-0.349138898396515
0.404866900178566
0.283127265907635
-0.316086300801662
-0.648067650835005
0.358051666730864
2.27709272876064
-0.59454227204099
-0.125370145006731
-0.153716622392092
0.0535790311286146
-0.0350535070161397
0.545897786847952
0.128814166119984
-0.158282470715675
0.163078789428477
0.837670005062842
-0.333976162451806
-0.310912126272273
-0.0592730001819148
-0.520670047424629
-0.232392109733042
-0.235580460480093
-0.0555661351089334
0.640799854095184
0.137521034926266
-0.168359687713013
0.537976187717658
-0.976246832896083
-0.0370906203230391
0.00348140656552473
0.690678013122915
0.361380005985662
0.769528422516195
0.644064412328147
0.810886027492857
0.468608348180942
0.76026017243328
-0.24817943358334
-0.576750462002355
1.00696598673652
0.808831984326796
0.577309124900908
-0.0439447122308726
0.591138185156848
0.137099340436117
-0.621853984454568
0.87445551078319
0.747791627970897
-0.843809476929817
0.462167047056149
0.164466352560842
-0.277555345354476
0.577651330185502
0.112788853212028
-1.73812714648268
1.48698351978006
-0.288833274939097
0.52571598815323
-0.12235249503743
0.531632296653225
-0.0501085729824947
-0.0821497623903938
-0.558581446585143
0.886893581766554
-0.011429390621197
1.3602670356189
-0.20592176618608
0.45833401844169
1.32403908883761
1.0906513608207
0.348623504192143
0.347037830656131
-0.203819492131129
0.36966871166887
0.546910091610964
-0.689799322446495
0.634092131314647
0.256759547693094
-0.0280339350855161
-0.180708859782865
-0.304467980865147
-0.08263575753412
0.205107096889412
-0.107391499681984
-2.42075275123723
-0.05811410705673
1.80048596711412
-0.843368638023017
1.38770201243388
-0.872925702114682
0.122359869598569
0.0256200018581824
0.15571846471214
0.155882107593597
0.742152918279421
1.12811182200608
0.505882098325644
-0.505099556861215
0.286396279916043
0.805791136292787
-0.215042246315841
1.57778626266566
0.823599563762883
-0.692405967338991
0.866642949516559
-0.870252925079209
-0.106382767807077
0.577956340996017
0.505507154696639
0.649267434533388
0.338158138747302
-0.571962786731721
0.817458579093128
-0.368399208014099
0.440381453995171
-1.23026740543019
-0.302765458023227
0.00619681824923471
1.65863552012069
0.225177467411597
-0.314707914317414
-0.512492347602081
0.307731138818914
0.845538600183749
0.552743713414545
0.396144392090347
-0.20407745704433
-0.0285466579859445
0.150321464898421
-0.178855770505821
-0.0665936952772163
0.183504397256154
0.987716327068664
0.56676792435619
1.21607342818232
0.557890633528795
-0.756788985440594
2.27388527925952
-0.255164147604397
0.424986277860932
-0.515035452608238
0.455909978031855
-0.456286060311215
0.636059405904424
-0.533135137514872
-1.14390790723111
0.184602764858344
0.641455540552969
0.843068985447051
-0.182598274610547
0.172169589326974
-1.84168939167717
0.150262456883688
-0.463637932792431
-0.175262978287005
-0.760762979273159
0.157906250240105
0.12450544414406
-0.183243660317533
-0.0197202752366744
0.0697074864407841
0.748047879571099
-0.220957406869721
0.191515490422239
0.238133652589913
-1.28845240773915
-0.180304895138431
1.11358854369113
-1.04004432647744
-0.055541088056403
0.492198264282574
-0.144355637485757
-0.239283835508726
-0.8171339906464
0.48424362245393
-0.028154578586846
0.608785976598642
1.05903658034737
0.01209405609717
0.585153072034611
0.13343795710746
0.454446407093236
0.771778011555023
0.28182198029706
0.582270766877836
-0.000949686921995466
-0.322528779236762
-1.18100952178762
-0.357488259245596
1.15382931233375
0.146464015410118
0.437707542467465
0.466398788326836
-0.00959008034653298
0.284882398585317
-0.306846675301442
-0.929689001771426
0.159891791824819
-1.34057323725679
-0.192085383629605
0.97226121601305
0.303181237981645
0.239206665395353
-0.17426922442437
0.140464021804201
-0.21355703407881
-0.421595964187381
0.0385498641789171
0.616517534071351
0.115537480589493
-0.068366140888897
-0.864795710912861
0.390882281529237
0.507800799433969
0.670101666216396
0.549552856252051
-0.331591183799204
0.541735103954288
-0.910115886307369
-0.208910328005027
0.730191330854983
0.392092319077324
0.332826316831964
-0.681008689798248
-0.200283204736601
-0.148439306313809
0.151243456646416
0.517760331761962
0.47653280778834
-0.18626110096759
0.444113950312844
0.212718663532556
0.754271352966822
0.538447191236609
0.43851823123722
-0.978601885770538
-0.580190999174696
0.609369425333647
-1.32512967416213
-0.134138260218182
-0.663783637514896
0.478288776589332
0.454321914755104
0.395920636659143
0.289825444634814
-0.404826882514387
-0.796110804330447
-1.39529943551465
-0.665297649149265
2.16902851958238
0.275473700125024
0.354371136365093
0.341187205301292
0.844670562724762
-1.85143308412415
0.280223911122436
0.639161818592281
0.214802755002368
-0.193278923615094
0.0589720187859834
0.70723863166047
-0.247620267186454
0.440135451739846
2.42010102855891
-0.149908255154719
1.11494173204635
0.669730232842934
0.983525019042511
0.768027884090249
1.00529791055941
0.489534310541196
1.1016115379181
0.616057546254672
-1.10297311792854
0.0690137560635449
-2.63836436176028
0.256209518987734
0.45589344216899
-2.02168887904258
-0.0779280318480745
0.262346744925476
-0.119155373381556
-2.5151731026944
0.670852176141975
3.65820005627331
-0.208546091156882
-3.18581010420545
-5.53929130576277
-3.46662293286732
-1.98665490625714
-0.103636982794212
-0.633818617781306
0.483453733786658
-0.0206866757610827
-2.06188299878895
4.38449034754488
2.92285660670978
-1.23343387534546
4.0719582917777
2.22680016220958
-0.121765305870171
4.91841531436204
-0.00526170479693596
5.41081135739338
6.47196751250368
-4.73686861422874
-1.56576014323857
0.00205879357945989
0.00641863296091748
-0.108928702514913
0.0419918597076556
2.62417823427869
1.47030354356681
2.93305962296907
-0.114375247399675
-3.64431514367414
0.0846042320481366
-2.75976674694621
4.44518617829551
2.23526572190714
0.0914680898655946
0.9362097595128
0.204058448875895
4.89326647486105
-0.0346228001495185
-3.13742927562943
-0.24711645203226
-1.6425666298765
-0.228437423470799
-0.298873988081367
-0.189224632626131
-0.383651205190352
-0.404243156314793
-0.0861678004885425
0.692763406860666
0.0975978936765601
-0.15282135917728
0.40633633772973
-0.123891802141687
-0.678301567617506
-0.00545247231277716
-0.261889169944558
-0.186150585453775
-0.174606871166506
0.108004622071526
0.460548461863769
-0.328425812129591
-0.0805326572141162
-0.522780168457809
-0.2882280174678
-0.210447179331995
-0.149866987617714
-0.293108692773625
-0.861063040353672
0.667221278809521
-0.210237623137803
0.154463052270606
-0.271584809795552
-0.25925940562589
-0.227041221401413
-0.391300649343404
-0.386986671000192
-0.216628674024056
0.934185775457247
-0.163529793743158
-0.440889343861383
-0.508559851122297
-0.767176100845294
-0.357575788532474
0.146302918258781
-0.211932836423651
-0.0792676098044678
-0.296392717949296
0.79028365521818
-0.202029934034301
-1.15189430102901
-0.220424478747984
-0.251646333206485
0.549799716432802
