-0.951430621218519
-0.567994011038876
-0.439471339097085
-0.190067458641407
-0.163141241743681
-0.383602007116843
0.120491086134041
-0.208566143043115
0.133480834612109
-0.348569842301712
-0.165776808987734
-0.667728524475555
-0.0774113464427296
-0.718481199096302
-0.269610760001193
-0.709677422646244
-0.250407050338657
-0.0638980360541485
0.324634262932822
0.265193202802754
0.220472487117844
-0.51663839740345
0.0944370925664052
-0.242153160216947
-1.02511154716983
0.519095365659594
0.143506351758584
0.328994415297501
0.246316834378365
0.355188745566709
1.20515943695684
0.186983171829106
-0.107448013577525
-0.572950733556214
-0.0294545670263112
-0.84694467828611
-0.452203833744531
-0.08499701235492
-0.325368111559745
-0.42892391750257
0.230607159323988
-0.290690561470864
-0.242985522752814
1.0432438019309
-0.324989560686752
-0.146772875243162
0.174342140298301
0.798190533600537
-0.456315707680457
0.473006107997205
-1.03626234835857
0.66874255899067
-0.305054494455169
-0.130405020102623
0.574063794852741
0.270199181216145
1.75333717883148
-0.13853806685475
0.256894915013697
0.154868420796593
-0.534211674767415
-0.12640912558489
0.17185540726412
0.515864058314569
0.139542799287391
0.229326483477043
0.132995122268303
0.0295421029341079
0.0758613425318707
-0.408846528562831
2.80820335323858
-0.376454006996272
0.296706248531978
-0.570661556585399
0.30796897856798
0.936432049775613
-0.705638755322738
0.524180804519804
0.473000798471879
-0.89348663763281
0.226986429359964
-0.322465371763068
0.399078921852909
-0.786462190193694
0.352483277313486
0.691854291254922
0.687728533699084
0.750163646453564
-1.18526486542442
0.191101775101956
-0.624101877352502
-0.119232469335887
0.637829434865647
0.53354492266622
-0.0708419243471875
0.275760705437895
-1.39225412827907
-1.83609021952216
0.0943546861389039
-2.45917354278143
2.25442165790677
1.16109501093577
-0.0659644535580549
1.87449927927284
0.226174814021373
-0.706929546889815
-1.85438905789224
-1.02188767140324
-0.146285089376242
0.476430623610198
-1.42189462771149
0.260840295381035
1.49962899873157
-0.848502512535067
-0.169170652365893
-0.0968504355366172
-0.350988006372693
-0.0400814643619794
-0.145996770933291
0.306211251311137
-0.627531629688165
-0.471306660317182
0.00841428200743536
-0.0338622004840059
-0.011761699646709
1.28755912696914
0.112006068281688
-0.546353834766884
0.0606648672400415
1.00213112472634
1.68525136972208
0.756425726465733
-0.14871490680873
0.41941410627742
0.498763966814554
0.359930348466587
-0.380699430748961
-0.281747936514864
0.0728022960820142
-0.357806607078786
1.08671116917922
-0.133281429630769
-0.574349153709952
-0.298781086264946
-0.0907390473540543
1.23062509620517
0.413561780241165
-0.0176077665570844
0.581043789002563
2.07800596264033
1.3419956700432
1.17522329206268
-0.159140968853756
2.21605407310999
-0.189175331583803
-1.25831874861112
-0.352894266146655
-1.798943969855
0.0422550025130155
-0.235597568369084
-1.81747333788471
0.141162782826004
1.89938966750362
-0.970425639424397
-0.16933974091992
-0.418109598329531
-0.792332651813474
-0.255920316989043
-0.0265559293585917
-0.512621478684994
-1.34727582220025
-1.59797604552113
-0.227386139106347
0.836469678384417
0.315700377876921
0.451707159388566
1.33530344360478
-0.946053703054343
-0.292830936171421
0.383275519295326
-1.3245607186985
-0.0102186817414247
0.0114992695281702
0.405123618109963
-0.0088509862224657
1.17732421090774
0.126047489290869
-0.645401016407907
0.514037093765426
0.0804889617398408
0.392814421786445
0.0369171089146941
-0.962646699565042
2.05354372656262
-0.270195278026033
-0.083547274511274
0.164327847739547
0.661385563461169
-0.438729644578332
0.775141030664825
-2.45682617609131
-0.499515421477741
-0.10363367135692
1.07713323919608
0.253148001056038
-0.558975440968125
-0.487602145422348
-0.134510461388416
-0.0775178220990684
0.0956684676142354
-0.152278719276714
-0.0717443769336908
-0.106517805466414
1.40655748941974
-0.144185289724044
0.124866600183021
-1.35837515861693
-0.251953235607498
0.615722688102193
-0.383485427976395
-1.06707784322642
-1.63077569941123
0.0180220809585398
0.0798635643972136
0.257219125017479
-0.393100768381499
1.02483452653694
-1.03946726537297
0.323865762833567
-0.479258196538396
-0.156612489666164
-1.13443128825827
-0.257349170971938
-0.980835360000754
-0.269628367155077
0.481736369462772
-0.253030552581578
-0.464009626707432
-0.449881077575453
0.645316664850077
-0.543893908813145
-0.0410739838061356
-1.89094622164019
1.12873155638862
-0.137697943045542
0.20681688070843
-1.81028993057256
-1.40120246020128
0.359076091389128
0.43229416207343
-1.53403851994657
-0.819409043391054
0.353351965462425
1.14492840555251
-0.11525445082393
-0.746235891124208
-0.950319608643456
0.559834049177611
0.126925071406425
0.408332210834728
0.758974954848545
-0.0699259894586288
-1.17702619905226
0.359328018936896
-0.255182407456301
0.244970299010095
-1.1587826148887
0.590408605349186
0.251457566956861
0.54384146680483
1.14084395479912
-1.6657213660383
0.414937716844224
-0.139841548327313
0.375671032753164
-1.03117269507418
1.48545484731635
-0.937315606495914
0.0657196565061636
0.082604059499268
-0.109080557195676
-0.394431711986884
0.158509051950077
0.126056139087246
-0.314664235198973
-0.0442999148648941
0.38340510936053
-0.970463264273686
0.202076609247634
0.636296047312193
0.13016784292002
0.300337535036033
-2.01882298620294
1.57222066494924
0.592235177246727
0.417674666340074
1.17114577752034
-0.230063893176676
0.393301624379197
-1.03086079260112
-0.439096798466592
-0.160945752836642
-0.218698980809622
0.887014087658373
0.590419787823833
0.0478493729774528
-0.205862923310798
-0.409885019784579
0.579857720991656
-0.0110276570707935
-0.21287364584172
0.0511934252616799
-0.721585841119551
-0.0687528562045559
0.316275470500169
0.559443488438623
-1.01622534722908
-0.347295110359009
0.679080284318089
0.0956072059813609
-0.461106821900377
-0.710912863442916
-0.151896998966092
0.109512125840244
-0.518953273740157
0.403597027766229
0.12699103245934
-0.662777612894077
0.0993195660219326
-0.884299709144194
0.6361675368234
0.716663849403486
0.331181295472097
-0.975876582773743
0.349759200279801
-0.294207957406236
0.637454566724182
-0.716325345205293
-0.117425347555613
-0.0890742091468143
-0.982327291678853
0.107105067796964
-0.169719924413545
-0.380409926905199
0.166847432584921
0.742634546418874
-1.0336413619848
-2.0282245487822
0.316382909761715
0.599154067894629
0.776867019517372
1.30913297402752
0.0574659225060848
-0.399187686374491
-0.194570367187779
-0.198637506038332
-0.831530110110679
-1.20473712608671
-0.230962452803539
-0.177295956260058
-1.2289136485796
0.828187136358815
2.34820975398155
0.0615119791223817
0.0414046831489444
0.239710032518501
0.590344264099065
0.712666178840266
0.168127262732771
0.544725609405362
1.04668852713774
0.626325355705459
0.307484920499266
1.28038249727568
-0.149931560647332
0.665795332845693
0.257144583204184
0.282301972831323
0.163380705765775
0.0889040822249763
-0.507655950308566
0.110520246748208
0.099462948575523
0.373294089353705
0.000910267949929563
-0.593844578482868
0.0400347141800322
0.153708085240449
1.68373725602899
-0.0873522406387992
0.342928088077638
0.337640647478203
0.179468835104739
0.403300368963778
0.491273606500667
-0.153761029746141
0.248764633569624
1.02504781008001
0.649193396710183
-0.646319765969747
-0.702273683520186
0.203831914733914
0.275373068950913
-1.40697011485484
-0.482577388435567
-1.5632786990391
-0.951709800174367
0.853315714702034
-0.0859373367402661
0.224329397885166
1.20846409005915
-0.2813241083212
3.00248636643894
0.905624051550812
0.267608807579091
0.0358456120688119
-0.698892434259539
0.0934433469209526
0.0958558275180722
0.924523180773567
-1.08751663544755
-1.54864573586577
-0.413290098578337
-0.402511331765774
0.781200251835594
0.877462281830899
1.18663477128668
-0.400358211039725
-0.176815586017885
-0.130634767029877
1.9196615414156
-0.691770456273293
-0.370429408712552
0.0959667244836161
-0.189393553168753
1.2165791854186
0.162893341771894
-0.934100864276028
1.13749137282111
-0.289772085747344
-0.546367471186492
-0.205190365280924
-1.57818290892566
1.11067845199583
0.279640709056802
0.83647402160774
0.046189021641567
0.715841718127263
0.0527847269035692
-0.393318644223725
-1.09994014248397
-1.00780306840425
0.0404438429490807
-0.786689825011113
0.245295684658512
0.957775749838667
0.0996120695919097
0.158240382245641
0.280769275650705
0.177524523233873
0.385473014136174
0.399028698586233
-1.20835060449669
0.840011913938948
0.358421079112537
0.290600377938612
0.0441010152352514
-0.333096947624041
0.351485253654945
0.881215432781037
2.25237909763385
-0.279682403016487
-0.284470775094165
-0.41539515341635
0.652238886219573
0.206267957615526
-0.0597669851830592
0.567403842611798
0.278512417962139
-0.461894751156956
0.448047879947756
-0.805476153521546
0.480842406065151
-0.334872268653345
0.46110302510201
1.09802322413281
0.42509724657329
1.17461401662613
-1.03538867941166
-0.0729323540933075
-0.84665378544288
-0.27462757095734
0.159697084832
1.27538816650823
0.449383680645828
0.0956478372824111
-0.39018178633919
0.285914159971773
0.386672967974593
-0.564459621778166
-0.21066421165426
0.772925237097059
0.522066479916189
0.387354981886752
-0.393983589832655
0.181246681489404
0.84736564686841
-1.31744584151679
0.316245691704555
0.367372910151851
-1.48355067813514
0.420719037046664
0.800853771121585
0.12104336321704
0.536011965236968
-0.0735642529335707
-0.288478980805404
0.589304435281569
-0.199755644913306
0.273322224230387
1.96698327412314
0.186342506517436
0.483028721608132
0.634628456776511
-0.890491540604059
1.86130224907937
-0.167550805469264
-0.205917494988969
0.345374327240661
0.18619694876016
0.32759034843297
-0.562892567066645
-0.117279008824556
0.288171273364903
0.550544387328258
-1.247092606216
-0.200640219700381
0.342441802719602
-0.549583791428307
-0.286669098425101
-0.531409810094512
0.436468874815141
0.0250622249866233
-0.362482295387609
-0.0560645213123044
0.290279107512783
0.894359422555115
-0.888786844839893
0.460135374929768
-1.28797565863276
-1.61596280736932
-0.639076957445961
0.314980228689334
0.733244352263795
0.553263729677364
-0.331541023078188
0.269178832694012
-0.197183730749862
0.344182171553049
0.110000614847374
-0.144654135290943
0.289683815497144
0.338947373572137
1.00294884324769
0.6937827020787
0.661060149807968
0.318185650702206
0.496819149346282
-0.0194198857539633
0.442428740863887
-0.178700006805936
1.21147681089688
0.531240816184757
0.51379958566054
0.919155333002012
0.252118073788774
0.0373551279644425
-0.872480947195391
0.0778863100450334
-0.201260293977643
0.652162995338527
0.249193281099913
0.0792149159897865
-0.0217767312078735
-0.189333516922377
0.598011702979672
0.237008397049005
-0.878599388598816
-2.10438603447253
0.296637170208861
-0.651346647826207
-0.116812597848031
-0.0549786824076435
-2.03140564779584
0.0369797004592533
0.459360514663577
-0.374328486306136
0.886239818742693
0.176848436184165
-1.27479972730587
-1.93748685932257
0.0247535306496737
-0.0346302513842058
-0.414580997493627
0.75710944846471
-0.652685193243666
0.0695508876162003
0.409335598868577
-0.183022081600555
0.0638378628871068
0.14204176964002
-0.0794229694559477
1.01924531785314
-0.64902522312126
-0.155653311376417
-0.143566240419613
-0.60939751193863
0.567233367284621
0.0287663784976579
-0.390689549227079
-0.518358290664646
-0.894745211345187
0.578752738134909
-0.0566199494140402
0.00894672841039782
0.726043430460191
0.80940345835229
-0.047701881501214
0.283694239985744
-0.776663846064602
-0.342387539886696
0.676930509684032
0.247805561711627
-0.65973942271491
0.0281738677473427
0.147003500920247
0.381444472927121
-0.876723769794396
0.333640960185857
0.692347701592094
-0.824266554117248
0.415005191445054
-1.81431366894395
1.07707187147972
-0.184995846757606
0.556552803610837
-0.581403019877122
0.0252688308752881
-0.0599462224334896
0.281324996899106
-0.179863384325298
-0.219628946848834
0.409467641778899
0.303317886425761
0.291074326680397
0.722028916623701
-0.0455649890964921
-0.161363099066774
0.514624210747421
0.539789522045274
-0.308482533309878
0.495089231320358
-2.81834564020757
0.475478629537215
-0.0271274510436977
0.195923357762035
0.389471731896403
0.0319621210968373
0.445036354743195
-0.243911559166434
1.41765083080419
-0.238844202828478
0.006861625163467
0.842197836486421
0.915935657121692
-0.108590968499934
0.310362359579731
0.279200243114868
0.381941822892236
-0.0180527445405327
0.00345227231221118
0.209553246382567
0.721813080229308
0.146417322040331
-0.0486335336759591
0.554538770585316
-0.122729223900847
0.640935549554518
0.574861588249497
0.426660312569853
-0.115416053678318
0.631842761575036
-0.274452395355717
1.23108185387111
-0.117563279736873
-0.264058104035483
0.0273522646114451
-1.08897092759206
-0.212946426419402
-0.201149451801402
0.613690210296088
1.27723924723294
-0.186152227247432
-0.614631632223021
0.669557370602219
0.376254070287622
1.41171400653576
0.0327862616916883
0.178427629065634
-0.0129669175038951
-0.00922506092911101
-0.481140142396601
0.0480574644797171
0.0241654355624637
0.128506513752336
0.638016844064779
-0.389089651611061
-0.00438260348788159
0.144658248254378
0.578222837329522
0.336661287216255
-0.0306604575051204
0.509829857730768
-0.580378984029954
0.77326926274934
0.747941283363166
-0.756744891990067
0.921607401783498
0.13877741527208
-0.317699628534479
0.568397726595692
-0.58201061286222
0.0936819898450778
-0.309157255369919
0.355103115724841
0.837289380652956
0.49919847041026
0.378459642465376
1.62847893021144
0.357137337859975
0.415921010668229
-0.093167925726999
1.19652193981002
-0.30983135704014
0.325202025272557
0.210510034403033
-0.561460806166565
0.597693856334756
-0.387058029448186
0.486857758468099
0.509927510738575
0.0203233016724444
0.772418555526911
-0.608440444441659
-0.0625541880093094
-0.0563971991603674
-1.38229034254065
0.2815492665427
0.389043356200363
-0.178800619747386
0.533304249222958
0.707058778691241
-0.790499460691566
-0.623764797422086
0.211278955900508
-0.253462856075389
0.432209495200482
0.266803494406821
0.15661606499487
1.38467380272724
-0.320548798780287
0.942132780560536
0.280011281378198
1.18581521698769
0.512347085056089
-0.314079032446384
-0.143974571488516
-0.224303065023877
0.327501931222629
0.092348776206943
2.35095087770478
-0.100739559584656
0.471291043011588
0.198846398889617
0.653267782468801
1.54710954461216
-0.234239016757362
-0.638420538121036
2.2349329622087
-0.48288536918085
0.451098288569249
0.68827748009747
0.418740495121036
-0.461919834954858
-0.0358500730072219
-0.697587841474023
0.181112108802426
0.96329861609388
0.482481275952533
-0.355819260608353
4.46118762982464
2.80085035568402
0.170634692038623
4.29088074318373
-0.570187131880358
-1.6078431268054
-2.16505207912614
-2.39605158335029
-0.0308342178364007
-0.0451298793164969
-3.26432574468245
0.8510304400014
6.10977675150322
-2.03568035414439
-0.0135139020812467
-0.621605234935533
-1.79284893595992
0.103742992480611
-0.141237788385255
1.29503210575355
-5.42046993197944
-3.47469543317596
-0.0239664993232259
2.01202716679521
-2.69481712275309
3.26423797744675
2.37950421530665
-1.7428564500487
-0.0922915050487527
1.23185623257177
4.02091625111628
0.960818403083043
-0.101573215915669
0.668793912688289
0.13529365776657
-4.14519172171152
-0.50058972457761
-1.38467531121524
3.75734625697146
-0.218739619976118
1.4608155935624
0.170315951064297
-3.89449099266942
4.13594395125976
0.0589529839541139
1.2793343561841
2.38479350344405
3.06461027197364
0.573440356640827
4.12871491936458
-1.05643058151186
-0.511493988285679
-0.33347133709075
-0.520567442739555
-0.0881412469825233
0.118897976656393
0.556991061527476
0.00193383355067393
-0.231519165444729
-0.101069841374828
0.259223159806443
-0.227728521419206
-0.195911327650687
-0.56398121276584
-0.346610761144409
-0.360677428341129
0.253092932137416
-0.234898034744237
-0.163865738323153
0.259693207043811
0.450472473320629
-0.296138428609483
-0.192062906608116
-0.319153155787772
-0.637111547796863
0.160595384501542
-0.075993643927239
0.20749439724394
-0.156183166289423
-0.115311239456541
0.920659472650451
0.0824831756144022
-0.157948016176398
-0.0654507293075364
-0.221954565462947
-0.706444679616998
-0.126703839253929
0.146002971040422
-0.68786810978511
-0.331923925385344
-0.255892823365023
-0.252690558923846
0.132514464359123
0.600243818478219
-0.425989557501413
-0.0512728619505699
0.0588421496771022
0.334690534566405
0.00118429941774337
0.137006109937154
0.917524616300047
